//
// Created by Simone on 18/05/2022.
//

#pragma once
#include "../../macros.h"


namespace Eloquent {
    namespace Graphics {
        namespace Colormaps {
            class Blues_r {
            public:

                /**
                 * Convert single byte to RGB color
                 * @param x
                 * @param r
                 * @param g
                 * @param b
                 */
                void convert(uint8_t x, uint8_t *r, uint8_t *g, uint8_t *b) {
                    *r = red[x << 2];
                    *g = green[x << 2];
                    *b = blue[x << 2];
                }

            protected:
                uint8_t red[64] = {8, 8, 8, 8, 8, 8, 8, 8, 8, 11, 14, 17, 21, 24, 27, 30, 34, 38, 42, 46, 50, 55, 59, 63, 67, 73, 78, 83, 88, 93, 99, 104, 110, 116, 123, 129, 136, 142, 149, 155, 161, 166, 171, 176, 181, 186, 191, 196, 200, 203, 206, 209, 212, 215, 218, 221, 224, 227, 231, 234, 237, 240, 243, 247};
                uint8_t green[64] = {48, 52, 56, 60, 64, 68, 73, 77, 81, 85, 89, 93, 97, 101, 105, 109, 114, 118, 122, 126, 130, 135, 139, 143, 147, 150, 154, 158, 161, 165, 168, 172, 175, 179, 182, 186, 190, 193, 197, 200, 203, 205, 207, 209, 211, 214, 216, 218, 220, 222, 224, 226, 228, 230, 232, 234, 236, 238, 240, 242, 244, 246, 248, 251};
                uint8_t blue[64] = {107, 113, 119, 125, 131, 138, 144, 150, 156, 159, 162, 165, 169, 172, 175, 178, 181, 183, 185, 188, 190, 192, 194, 196, 198, 200, 202, 204, 206, 208, 210, 212, 214, 216, 217, 218, 220, 221, 223, 224, 226, 227, 229, 231, 233, 235, 236, 238, 239, 240, 241, 242, 243, 244, 245, 246, 247, 248, 249, 250, 251, 252, 253, 255};
            };
        }
    }
}

ELOQUENT_SINGLETON(Eloquent::Graphics::Colormaps::Blues_r blues_r);