//
// Created by Simone on 18/05/2022.
//

#pragma once
#include "../../macros.h"


namespace Eloquent {
    namespace Graphics {
        namespace Colormaps {
            class Blues {
            public:

                /**
                 * Convert single byte to RGB color
                 * @param x
                 * @param r
                 * @param g
                 * @param b
                 */
                void convert(uint8_t x, uint8_t *r, uint8_t *g, uint8_t *b) {
                    *r = red[x << 2];
                    *g = green[x << 2];
                    *b = blue[x << 2];
                }

            protected:
                uint8_t red[64] = {247, 243, 240, 237, 234, 231, 227, 224, 221, 218, 215, 212, 209, 206, 203, 200, 196, 191, 186, 181, 176, 171, 166, 161, 155, 149, 142, 136, 129, 123, 116, 110, 104, 99, 93, 88, 83, 78, 73, 67, 63, 59, 55, 50, 46, 42, 38, 34, 30, 27, 24, 21, 17, 14, 11, 8, 8, 8, 8, 8, 8, 8, 8, 8};
                uint8_t green[64] = {251, 248, 246, 244, 242, 240, 238, 236, 234, 232, 230, 228, 226, 224, 222, 220, 218, 216, 214, 211, 209, 207, 205, 203, 200, 197, 193, 190, 186, 182, 179, 175, 172, 168, 165, 161, 158, 154, 150, 147, 143, 139, 135, 130, 126, 122, 118, 114, 109, 105, 101, 97, 93, 89, 85, 81, 77, 73, 68, 64, 60, 56, 52, 48};
                uint8_t blue[64] = {255, 253, 252, 251, 250, 249, 248, 247, 246, 245, 244, 243, 242, 241, 240, 239, 238, 236, 235, 233, 231, 229, 227, 226, 224, 223, 221, 220, 218, 217, 216, 214, 212, 210, 208, 206, 204, 202, 200, 198, 196, 194, 192, 190, 188, 185, 183, 181, 178, 175, 172, 169, 165, 162, 159, 156, 150, 144, 138, 131, 125, 119, 113, 107};
            };
        }
    }
}

ELOQUENT_SINGLETON(Eloquent::Graphics::Colormaps::Blues blues);