//
// Created by Simone on 18/05/2022.
//

#pragma once
#include "../../macros.h"


namespace Eloquent {
    namespace Graphics {
        namespace Colormaps {
            class BrBG_r {
            public:

                /**
                 * Convert single byte to RGB color
                 * @param x
                 * @param r
                 * @param g
                 * @param b
                 */
                void convert(uint8_t x, uint8_t *r, uint8_t *g, uint8_t *b) {
                    *r = red[x << 2];
                    *g = green[x << 2];
                    *b = blue[x << 2];
                }

            protected:
                uint8_t red[64] = {0, 0, 0, 0, 0, 0, 0, 6, 15, 23, 31, 39, 48, 57, 69, 81, 93, 105, 117, 129, 140, 151, 162, 174, 185, 196, 204, 212, 219, 226, 234, 241, 245, 245, 245, 245, 245, 245, 245, 241, 237, 234, 230, 227, 223, 218, 213, 208, 203, 198, 193, 186, 178, 169, 161, 153, 145, 137, 128, 119, 110, 101, 92, 84};
                uint8_t green[64] = {60, 66, 73, 80, 86, 93, 100, 107, 115, 123, 130, 138, 146, 154, 163, 171, 180, 188, 197, 205, 210, 214, 219, 223, 228, 233, 235, 237, 238, 240, 242, 244, 243, 241, 239, 237, 235, 233, 230, 224, 218, 212, 206, 200, 194, 184, 174, 164, 153, 143, 133, 124, 116, 109, 101, 93, 86, 79, 74, 68, 63, 58, 53, 48};
                uint8_t blue[64] = {48, 55, 62, 69, 77, 84, 91, 99, 107, 115, 122, 130, 138, 146, 154, 162, 169, 177, 185, 193, 199, 205, 210, 216, 222, 227, 231, 233, 236, 238, 241, 243, 241, 233, 225, 217, 209, 201, 192, 181, 170, 159, 148, 137, 126, 113, 100, 88, 75, 62, 50, 41, 36, 30, 25, 19, 13, 9, 8, 8, 7, 6, 5, 5};
            };
        }
    }
}

ELOQUENT_SINGLETON(Eloquent::Graphics::Colormaps::BrBG_r brbg_r);