//
// Created by Simone on 18/05/2022.
//

#pragma once
#include "../../macros.h"


namespace Eloquent {
    namespace Graphics {
        namespace Colormaps {
            class BuPu_r {
            public:

                /**
                 * Convert single byte to RGB color
                 * @param x
                 * @param r
                 * @param g
                 * @param b
                 */
                void convert(uint8_t x, uint8_t *r, uint8_t *g, uint8_t *b) {
                    *r = red[x << 2];
                    *g = green[x << 2];
                    *b = blue[x << 2];
                }

            protected:
                uint8_t red[64] = {77, 83, 90, 96, 103, 110, 116, 123, 129, 130, 130, 131, 132, 133, 134, 135, 136, 136, 137, 137, 138, 138, 139, 139, 140, 140, 140, 140, 140, 140, 140, 140, 141, 143, 145, 148, 150, 152, 154, 157, 160, 164, 169, 173, 177, 181, 185, 189, 194, 198, 202, 206, 210, 215, 219, 223, 226, 229, 232, 235, 238, 241, 244, 247};
                uint8_t green[64] = {0, 1, 3, 5, 7, 9, 11, 13, 15, 22, 28, 34, 41, 47, 53, 60, 66, 71, 77, 82, 87, 93, 98, 103, 109, 114, 119, 125, 130, 136, 141, 147, 152, 157, 162, 166, 171, 176, 181, 186, 189, 192, 195, 198, 201, 204, 207, 210, 213, 216, 219, 222, 226, 229, 232, 235, 237, 239, 241, 243, 245, 247, 249, 252};
                uint8_t blue[64] = {75, 81, 87, 93, 99, 106, 112, 118, 124, 128, 132, 137, 141, 145, 149, 153, 157, 160, 162, 165, 167, 170, 172, 175, 178, 180, 183, 186, 188, 191, 194, 196, 199, 201, 204, 206, 209, 211, 214, 217, 218, 220, 222, 223, 225, 226, 228, 229, 231, 233, 234, 236, 238, 240, 242, 243, 245, 246, 247, 248, 249, 250, 251, 253};
            };
        }
    }
}

ELOQUENT_SINGLETON(Eloquent::Graphics::Colormaps::BuPu_r bupu_r);