//
// Created by Simone on 18/05/2022.
//

#pragma once
#include "../../macros.h"


namespace Eloquent {
    namespace Graphics {
        namespace Colormaps {
            class Bwr {
            public:

                /**
                 * Convert single byte to RGB color
                 * @param x
                 * @param r
                 * @param g
                 * @param b
                 */
                void convert(uint8_t x, uint8_t *r, uint8_t *g, uint8_t *b) {
                    *r = red[x << 2];
                    *g = green[x << 2];
                    *b = blue[x << 2];
                }

            protected:
                uint8_t red[64] = {0, 8, 16, 24, 32, 40, 48, 56, 64, 72, 80, 89, 97, 105, 113, 121, 129, 137, 145, 153, 161, 170, 178, 186, 194, 202, 210, 218, 226, 234, 242, 250, 255, 255, 255, 255, 255, 255, 255, 255, 255, 255, 255, 255, 255, 255, 255, 255, 255, 255, 255, 255, 255, 255, 255, 255, 255, 255, 255, 255, 255, 255, 255, 255};
                uint8_t green[64] = {0, 8, 16, 24, 32, 40, 48, 56, 64, 72, 80, 89, 97, 105, 113, 121, 129, 137, 145, 153, 161, 170, 178, 186, 194, 202, 210, 218, 226, 234, 242, 250, 250, 242, 234, 226, 218, 210, 202, 194, 186, 178, 170, 161, 153, 145, 137, 129, 121, 113, 105, 97, 89, 80, 72, 64, 56, 48, 40, 32, 24, 16, 8, 0};
                uint8_t blue[64] = {255, 255, 255, 255, 255, 255, 255, 255, 255, 255, 255, 255, 255, 255, 255, 255, 255, 255, 255, 255, 255, 255, 255, 255, 255, 255, 255, 255, 255, 255, 255, 255, 250, 242, 234, 226, 218, 210, 202, 194, 186, 178, 170, 161, 153, 145, 137, 129, 121, 113, 105, 97, 89, 80, 72, 64, 56, 48, 40, 32, 24, 16, 8, 0};
            };
        }
    }
}

ELOQUENT_SINGLETON(Eloquent::Graphics::Colormaps::Bwr bwr);