//
// Created by Simone on 18/05/2022.
//

#pragma once
#include "../../macros.h"


namespace Eloquent {
    namespace Graphics {
        namespace Colormaps {
            class Cividis_r {
            public:

                /**
                 * Convert single byte to RGB color
                 * @param x
                 * @param r
                 * @param g
                 * @param b
                 */
                void convert(uint8_t x, uint8_t *r, uint8_t *g, uint8_t *b) {
                    *r = red[x << 2];
                    *g = green[x << 2];
                    *b = blue[x << 2];
                }

            protected:
                uint8_t red[64] = {253, 253, 248, 243, 238, 234, 229, 225, 220, 216, 212, 207, 203, 199, 195, 190, 185, 181, 177, 173, 169, 165, 161, 157, 153, 149, 145, 141, 137, 133, 130, 126, 121, 118, 115, 111, 108, 104, 101, 97, 94, 90, 87, 83, 79, 76, 72, 68, 63, 58, 54, 49, 44, 39, 33, 26, 17, 4, 0, 0, 0, 0, 0, 0};
                uint8_t green[64] = {231, 226, 222, 218, 215, 211, 207, 204, 200, 196, 193, 189, 186, 182, 179, 176, 171, 168, 165, 162, 158, 155, 152, 149, 146, 143, 140, 137, 134, 131, 128, 125, 121, 118, 115, 112, 109, 107, 104, 101, 98, 95, 93, 90, 87, 84, 81, 79, 75, 72, 70, 67, 64, 61, 59, 56, 53, 50, 48, 45, 42, 40, 37, 34};
                uint8_t blue[64] = {55, 52, 59, 66, 71, 76, 80, 84, 88, 91, 94, 97, 100, 102, 104, 106, 109, 110, 112, 113, 114, 115, 116, 117, 118, 119, 119, 120, 120, 120, 120, 120, 119, 118, 116, 115, 114, 113, 112, 111, 110, 109, 109, 108, 108, 108, 107, 107, 107, 107, 108, 108, 109, 109, 110, 111, 111, 112, 112, 105, 98, 91, 84, 77};
            };
        }
    }
}

ELOQUENT_SINGLETON(Eloquent::Graphics::Colormaps::Cividis_r cividis_r);