//
// Created by Simone on 18/05/2022.
//

#pragma once
#include "../../macros.h"


namespace Eloquent {
    namespace Graphics {
        namespace Colormaps {
            class Cividis {
            public:

                /**
                 * Convert single byte to RGB color
                 * @param x
                 * @param r
                 * @param g
                 * @param b
                 */
                void convert(uint8_t x, uint8_t *r, uint8_t *g, uint8_t *b) {
                    *r = red[x << 2];
                    *g = green[x << 2];
                    *b = blue[x << 2];
                }

            protected:
                uint8_t red[64] = {0, 0, 0, 0, 0, 0, 4, 17, 26, 33, 39, 44, 49, 54, 58, 63, 68, 72, 76, 79, 83, 87, 90, 94, 97, 101, 104, 108, 111, 115, 118, 121, 126, 130, 133, 137, 141, 145, 149, 153, 157, 161, 165, 169, 173, 177, 181, 185, 190, 195, 199, 203, 207, 212, 216, 220, 225, 229, 234, 238, 243, 248, 253, 253};
                uint8_t green[64] = {34, 37, 40, 42, 45, 48, 50, 53, 56, 59, 61, 64, 67, 70, 72, 75, 79, 81, 84, 87, 90, 93, 95, 98, 101, 104, 107, 109, 112, 115, 118, 121, 125, 128, 131, 134, 137, 140, 143, 146, 149, 152, 155, 158, 162, 165, 168, 171, 176, 179, 182, 186, 189, 193, 196, 200, 204, 207, 211, 215, 218, 222, 226, 231};
                uint8_t blue[64] = {77, 84, 91, 98, 105, 112, 112, 111, 111, 110, 109, 109, 108, 108, 107, 107, 107, 107, 108, 108, 108, 109, 109, 110, 111, 112, 113, 114, 115, 116, 118, 119, 120, 120, 120, 120, 120, 119, 119, 118, 117, 116, 115, 114, 113, 112, 110, 109, 106, 104, 102, 100, 97, 94, 91, 88, 84, 80, 76, 71, 66, 59, 52, 55};
            };
        }
    }
}

ELOQUENT_SINGLETON(Eloquent::Graphics::Colormaps::Cividis cividis);