//
// Created by Simone on 18/05/2022.
//

#pragma once
#include "../../macros.h"


namespace Eloquent {
    namespace Graphics {
        namespace Colormaps {
            class Cubehelix {
            public:

                /**
                 * Convert single byte to RGB color
                 * @param x
                 * @param r
                 * @param g
                 * @param b
                 */
                void convert(uint8_t x, uint8_t *r, uint8_t *g, uint8_t *b) {
                    *r = red[x << 2];
                    *g = green[x << 2];
                    *b = blue[x << 2];
                }

            protected:
                uint8_t red[64] = {0, 6, 12, 17, 21, 23, 25, 26, 26, 26, 25, 23, 22, 21, 21, 21, 21, 23, 26, 31, 36, 43, 51, 60, 70, 81, 93, 105, 118, 130, 142, 154, 165, 175, 184, 192, 199, 204, 208, 210, 212, 212, 211, 209, 207, 205, 202, 199, 197, 195, 193, 193, 193, 195, 197, 201, 206, 211, 218, 225, 232, 240, 247, 255};
                uint8_t green[64] = {0, 2, 4, 7, 11, 15, 19, 24, 30, 36, 42, 49, 56, 63, 70, 77, 84, 90, 96, 102, 107, 111, 114, 117, 119, 121, 122, 122, 122, 122, 121, 121, 120, 120, 120, 121, 122, 124, 126, 130, 133, 138, 143, 149, 155, 162, 169, 177, 184, 191, 199, 206, 212, 219, 224, 230, 234, 238, 242, 245, 248, 250, 252, 255};
                uint8_t blue[64] = {0, 6, 13, 21, 29, 37, 45, 53, 59, 65, 70, 74, 77, 78, 78, 77, 75, 72, 69, 65, 61, 57, 53, 50, 48, 46, 46, 48, 51, 55, 61, 68, 77, 87, 98, 110, 123, 136, 149, 162, 174, 186, 197, 208, 216, 224, 230, 235, 239, 241, 243, 243, 243, 242, 241, 240, 239, 238, 238, 239, 242, 245, 249, 255};
            };
        }
    }
}

ELOQUENT_SINGLETON(Eloquent::Graphics::Colormaps::Cubehelix cubehelix);