//
// Created by Simone on 18/05/2022.
//

#pragma once
#include "../../macros.h"


namespace Eloquent {
    namespace Graphics {
        namespace Colormaps {
            class Dark2_r {
            public:

                /**
                 * Convert single byte to RGB color
                 * @param x
                 * @param r
                 * @param g
                 * @param b
                 */
                void convert(uint8_t x, uint8_t *r, uint8_t *g, uint8_t *b) {
                    *r = red[x << 2];
                    *g = green[x << 2];
                    *b = blue[x << 2];
                }

            protected:
                uint8_t red[64] = {102, 102, 102, 102, 102, 102, 102, 102, 166, 166, 166, 166, 166, 166, 166, 166, 230, 230, 230, 230, 230, 230, 230, 230, 102, 102, 102, 102, 102, 102, 102, 102, 231, 231, 231, 231, 231, 231, 231, 231, 117, 117, 117, 117, 117, 117, 117, 117, 217, 217, 217, 217, 217, 217, 217, 217, 27, 27, 27, 27, 27, 27, 27, 27};
                uint8_t green[64] = {102, 102, 102, 102, 102, 102, 102, 102, 118, 118, 118, 118, 118, 118, 118, 118, 171, 171, 171, 171, 171, 171, 171, 171, 166, 166, 166, 166, 166, 166, 166, 166, 41, 41, 41, 41, 41, 41, 41, 41, 112, 112, 112, 112, 112, 112, 112, 112, 95, 95, 95, 95, 95, 95, 95, 95, 158, 158, 158, 158, 158, 158, 158, 158};
                uint8_t blue[64] = {102, 102, 102, 102, 102, 102, 102, 102, 29, 29, 29, 29, 29, 29, 29, 29, 2, 2, 2, 2, 2, 2, 2, 2, 30, 30, 30, 30, 30, 30, 30, 30, 138, 138, 138, 138, 138, 138, 138, 138, 179, 179, 179, 179, 179, 179, 179, 179, 2, 2, 2, 2, 2, 2, 2, 2, 119, 119, 119, 119, 119, 119, 119, 119};
            };
        }
    }
}

ELOQUENT_SINGLETON(Eloquent::Graphics::Colormaps::Dark2_r dark2_r);