//
// Created by Simone on 18/05/2022.
//

#pragma once
#include "../../macros.h"


namespace Eloquent {
    namespace Graphics {
        namespace Colormaps {
            class Gist_earth {
            public:

                /**
                 * Convert single byte to RGB color
                 * @param x
                 * @param r
                 * @param g
                 * @param b
                 */
                void convert(uint8_t x, uint8_t *r, uint8_t *g, uint8_t *b) {
                    *r = red[x << 2];
                    *g = green[x << 2];
                    *b = blue[x << 2];
                }

            protected:
                uint8_t red[64] = {0, 2, 5, 8, 10, 13, 16, 18, 21, 24, 26, 29, 32, 35, 37, 40, 43, 45, 48, 50, 52, 54, 56, 57, 59, 61, 63, 65, 67, 70, 79, 88, 97, 106, 115, 123, 129, 136, 143, 149, 156, 163, 169, 176, 183, 184, 186, 188, 189, 191, 194, 198, 203, 207, 212, 216, 221, 225, 230, 234, 239, 243, 248, 253};
                uint8_t green[64] = {0, 0, 2, 11, 21, 30, 39, 48, 57, 65, 74, 82, 89, 97, 103, 110, 116, 122, 128, 130, 133, 135, 137, 140, 142, 144, 147, 149, 151, 154, 156, 158, 161, 163, 165, 166, 168, 170, 172, 174, 175, 177, 179, 181, 182, 179, 175, 172, 168, 165, 163, 165, 169, 172, 176, 180, 186, 192, 200, 208, 217, 227, 239, 250};
                uint8_t blue[64] = {0, 78, 116, 116, 117, 118, 118, 119, 120, 121, 121, 122, 123, 124, 124, 125, 126, 127, 126, 121, 116, 111, 106, 101, 96, 91, 86, 81, 77, 72, 71, 73, 76, 78, 80, 82, 83, 85, 86, 87, 88, 90, 91, 92, 94, 95, 96, 97, 99, 100, 106, 116, 126, 136, 146, 156, 166, 177, 189, 202, 214, 226, 238, 250};
            };
        }
    }
}

ELOQUENT_SINGLETON(Eloquent::Graphics::Colormaps::Gist_earth gist_earth);