//
// Created by Simone on 18/05/2022.
//

#pragma once
#include "../../macros.h"


namespace Eloquent {
    namespace Graphics {
        namespace Colormaps {
            class Greys_r {
            public:

                /**
                 * Convert single byte to RGB color
                 * @param x
                 * @param r
                 * @param g
                 * @param b
                 */
                void convert(uint8_t x, uint8_t *r, uint8_t *g, uint8_t *b) {
                    *r = red[x << 2];
                    *g = green[x << 2];
                    *b = blue[x << 2];
                }

            protected:
                uint8_t red[64] = {0, 4, 9, 14, 18, 23, 28, 32, 37, 43, 49, 54, 60, 66, 72, 77, 83, 87, 91, 95, 99, 104, 108, 112, 116, 121, 125, 130, 134, 138, 143, 147, 152, 157, 162, 167, 172, 177, 182, 187, 191, 194, 198, 201, 205, 208, 212, 216, 219, 222, 225, 227, 230, 233, 236, 239, 241, 243, 245, 247, 249, 251, 253, 255};
                uint8_t green[64] = {0, 4, 9, 14, 18, 23, 28, 32, 37, 43, 49, 54, 60, 66, 72, 77, 83, 87, 91, 95, 99, 104, 108, 112, 116, 121, 125, 130, 134, 138, 143, 147, 152, 157, 162, 167, 172, 177, 182, 187, 191, 194, 198, 201, 205, 208, 212, 216, 219, 222, 225, 227, 230, 233, 236, 239, 241, 243, 245, 247, 249, 251, 253, 255};
                uint8_t blue[64] = {0, 4, 9, 14, 18, 23, 28, 32, 37, 43, 49, 54, 60, 66, 72, 77, 83, 87, 91, 95, 99, 104, 108, 112, 116, 121, 125, 130, 134, 138, 143, 147, 152, 157, 162, 167, 172, 177, 182, 187, 191, 194, 198, 201, 205, 208, 212, 216, 219, 222, 225, 227, 230, 233, 236, 239, 241, 243, 245, 247, 249, 251, 253, 255};
            };
        }
    }
}

ELOQUENT_SINGLETON(Eloquent::Graphics::Colormaps::Greys_r greys_r);