//
// Created by Simone on 18/05/2022.
//

#pragma once
#include "../../macros.h"


namespace Eloquent {
    namespace Graphics {
        namespace Colormaps {
            class Oranges_r {
            public:

                /**
                 * Convert single byte to RGB color
                 * @param x
                 * @param r
                 * @param g
                 * @param b
                 */
                void convert(uint8_t x, uint8_t *r, uint8_t *g, uint8_t *b) {
                    *r = red[x << 2];
                    *g = green[x << 2];
                    *b = blue[x << 2];
                }

            protected:
                uint8_t red[64] = {127, 131, 136, 141, 146, 151, 156, 161, 166, 173, 179, 186, 192, 199, 205, 212, 217, 220, 223, 226, 229, 233, 236, 239, 241, 243, 244, 246, 247, 249, 250, 252, 253, 253, 253, 253, 253, 253, 253, 253, 253, 253, 253, 253, 253, 253, 253, 253, 253, 253, 253, 253, 253, 253, 253, 253, 254, 254, 254, 254, 254, 254, 254, 255};
                uint8_t green[64] = {39, 40, 42, 44, 46, 48, 50, 52, 54, 56, 58, 61, 63, 65, 68, 70, 73, 77, 81, 85, 89, 93, 98, 102, 106, 111, 115, 120, 125, 129, 134, 138, 143, 147, 151, 155, 159, 164, 168, 172, 176, 181, 185, 189, 193, 198, 202, 206, 210, 212, 215, 218, 221, 224, 226, 229, 231, 233, 235, 237, 239, 241, 243, 245};
                uint8_t blue[64] = {4, 3, 3, 3, 3, 3, 3, 3, 2, 2, 2, 2, 1, 1, 1, 1, 1, 3, 6, 8, 10, 13, 15, 17, 20, 26, 31, 36, 41, 46, 52, 57, 62, 68, 74, 80, 86, 92, 98, 104, 111, 118, 125, 132, 139, 146, 153, 160, 166, 171, 177, 182, 188, 194, 199, 205, 209, 212, 216, 220, 223, 227, 231, 235};
            };
        }
    }
}

ELOQUENT_SINGLETON(Eloquent::Graphics::Colormaps::Oranges_r oranges_r);