//
// Created by Simone on 18/05/2022.
//

#pragma once
#include "../../macros.h"


namespace Eloquent {
    namespace Graphics {
        namespace Colormaps {
            class Oranges {
            public:

                /**
                 * Convert single byte to RGB color
                 * @param x
                 * @param r
                 * @param g
                 * @param b
                 */
                void convert(uint8_t x, uint8_t *r, uint8_t *g, uint8_t *b) {
                    *r = red[x << 2];
                    *g = green[x << 2];
                    *b = blue[x << 2];
                }

            protected:
                uint8_t red[64] = {255, 254, 254, 254, 254, 254, 254, 254, 253, 253, 253, 253, 253, 253, 253, 253, 253, 253, 253, 253, 253, 253, 253, 253, 253, 253, 253, 253, 253, 253, 253, 253, 252, 250, 249, 247, 246, 244, 243, 241, 239, 236, 233, 229, 226, 223, 220, 217, 212, 205, 199, 192, 186, 179, 173, 166, 161, 156, 151, 146, 141, 136, 131, 127};
                uint8_t green[64] = {245, 243, 241, 239, 237, 235, 233, 231, 229, 226, 224, 221, 218, 215, 212, 210, 206, 202, 198, 193, 189, 185, 181, 176, 172, 168, 164, 159, 155, 151, 147, 143, 138, 134, 129, 125, 120, 115, 111, 106, 102, 98, 93, 89, 85, 81, 77, 73, 70, 68, 65, 63, 61, 58, 56, 54, 52, 50, 48, 46, 44, 42, 40, 39};
                uint8_t blue[64] = {235, 231, 227, 223, 220, 216, 212, 209, 205, 199, 194, 188, 182, 177, 171, 166, 160, 153, 146, 139, 132, 125, 118, 111, 104, 98, 92, 86, 80, 74, 68, 62, 57, 52, 46, 41, 36, 31, 26, 20, 17, 15, 13, 10, 8, 6, 3, 1, 1, 1, 1, 1, 2, 2, 2, 2, 3, 3, 3, 3, 3, 3, 3, 4};
            };
        }
    }
}

ELOQUENT_SINGLETON(Eloquent::Graphics::Colormaps::Oranges oranges);