//
// Created by Simone on 18/05/2022.
//

#pragma once
#include "../../macros.h"


namespace Eloquent {
    namespace Graphics {
        namespace Colormaps {
            class Pastel2 {
            public:

                /**
                 * Convert single byte to RGB color
                 * @param x
                 * @param r
                 * @param g
                 * @param b
                 */
                void convert(uint8_t x, uint8_t *r, uint8_t *g, uint8_t *b) {
                    *r = red[x << 2];
                    *g = green[x << 2];
                    *b = blue[x << 2];
                }

            protected:
                uint8_t red[64] = {179, 179, 179, 179, 179, 179, 179, 179, 253, 253, 253, 253, 253, 253, 253, 253, 203, 203, 203, 203, 203, 203, 203, 203, 244, 244, 244, 244, 244, 244, 244, 244, 230, 230, 230, 230, 230, 230, 230, 230, 255, 255, 255, 255, 255, 255, 255, 255, 241, 241, 241, 241, 241, 241, 241, 241, 204, 204, 204, 204, 204, 204, 204, 204};
                uint8_t green[64] = {226, 226, 226, 226, 226, 226, 226, 226, 205, 205, 205, 205, 205, 205, 205, 205, 213, 213, 213, 213, 213, 213, 213, 213, 202, 202, 202, 202, 202, 202, 202, 202, 245, 245, 245, 245, 245, 245, 245, 245, 242, 242, 242, 242, 242, 242, 242, 242, 226, 226, 226, 226, 226, 226, 226, 226, 204, 204, 204, 204, 204, 204, 204, 204};
                uint8_t blue[64] = {205, 205, 205, 205, 205, 205, 205, 205, 172, 172, 172, 172, 172, 172, 172, 172, 232, 232, 232, 232, 232, 232, 232, 232, 228, 228, 228, 228, 228, 228, 228, 228, 201, 201, 201, 201, 201, 201, 201, 201, 174, 174, 174, 174, 174, 174, 174, 174, 204, 204, 204, 204, 204, 204, 204, 204, 204, 204, 204, 204, 204, 204, 204, 204};
            };
        }
    }
}

ELOQUENT_SINGLETON(Eloquent::Graphics::Colormaps::Pastel2 pastel2);