//
// Created by Simone on 18/05/2022.
//

#pragma once
#include "../../macros.h"


namespace Eloquent {
    namespace Graphics {
        namespace Colormaps {
            class Pastel1_r {
            public:

                /**
                 * Convert single byte to RGB color
                 * @param x
                 * @param r
                 * @param g
                 * @param b
                 */
                void convert(uint8_t x, uint8_t *r, uint8_t *g, uint8_t *b) {
                    *r = red[x << 2];
                    *g = green[x << 2];
                    *b = blue[x << 2];
                }

            protected:
                uint8_t red[64] = {242, 242, 242, 242, 242, 242, 242, 253, 253, 253, 253, 253, 253, 253, 229, 229, 229, 229, 229, 229, 229, 255, 255, 255, 255, 255, 255, 255, 254, 254, 254, 254, 254, 254, 254, 222, 222, 222, 222, 222, 222, 222, 204, 204, 204, 204, 204, 204, 204, 204, 179, 179, 179, 179, 179, 179, 251, 251, 251, 251, 251, 251, 251, 251};
                uint8_t green[64] = {242, 242, 242, 242, 242, 242, 242, 218, 218, 218, 218, 218, 218, 218, 216, 216, 216, 216, 216, 216, 216, 255, 255, 255, 255, 255, 255, 255, 217, 217, 217, 217, 217, 217, 217, 203, 203, 203, 203, 203, 203, 203, 235, 235, 235, 235, 235, 235, 235, 235, 205, 205, 205, 205, 205, 205, 180, 180, 180, 180, 180, 180, 180, 180};
                uint8_t blue[64] = {242, 242, 242, 242, 242, 242, 242, 236, 236, 236, 236, 236, 236, 236, 189, 189, 189, 189, 189, 189, 189, 204, 204, 204, 204, 204, 204, 204, 166, 166, 166, 166, 166, 166, 166, 228, 228, 228, 228, 228, 228, 228, 197, 197, 197, 197, 197, 197, 197, 197, 227, 227, 227, 227, 227, 227, 174, 174, 174, 174, 174, 174, 174, 174};
            };
        }
    }
}

ELOQUENT_SINGLETON(Eloquent::Graphics::Colormaps::Pastel1_r pastel1_r);