//
// Created by Simone on 18/05/2022.
//

#pragma once
#include "../../macros.h"


namespace Eloquent {
    namespace Graphics {
        namespace Colormaps {
            class Plasma {
            public:

                /**
                 * Convert single byte to RGB color
                 * @param x
                 * @param r
                 * @param g
                 * @param b
                 */
                void convert(uint8_t x, uint8_t *r, uint8_t *g, uint8_t *b) {
                    *r = red[x << 2];
                    *g = green[x << 2];
                    *b = blue[x << 2];
                }

            protected:
                uint8_t red[64] = {12, 24, 33, 41, 49, 56, 63, 69, 76, 82, 89, 95, 101, 108, 114, 120, 127, 133, 139, 144, 150, 155, 160, 165, 170, 175, 180, 184, 188, 192, 196, 200, 205, 209, 212, 215, 219, 222, 225, 228, 231, 234, 236, 239, 241, 243, 245, 247, 249, 250, 251, 252, 253, 253, 253, 253, 252, 251, 250, 248, 246, 244, 242, 239};
                uint8_t green[64] = {7, 6, 5, 5, 4, 4, 3, 3, 2, 1, 1, 0, 0, 0, 0, 1, 3, 6, 9, 14, 18, 23, 27, 31, 36, 40, 45, 50, 54, 59, 63, 68, 73, 78, 82, 87, 91, 96, 101, 106, 110, 115, 120, 125, 130, 135, 141, 146, 153, 159, 164, 170, 176, 182, 188, 195, 201, 208, 214, 221, 228, 234, 241, 248};
                uint8_t blue[64] = {134, 139, 143, 147, 150, 153, 156, 158, 161, 163, 164, 166, 167, 168, 168, 168, 167, 166, 164, 163, 160, 158, 155, 151, 148, 144, 141, 137, 133, 129, 126, 122, 117, 114, 110, 107, 103, 100, 96, 93, 90, 86, 83, 79, 76, 72, 69, 65, 61, 58, 54, 51, 48, 45, 42, 40, 38, 36, 36, 36, 37, 38, 38, 33};
            };
        }
    }
}

ELOQUENT_SINGLETON(Eloquent::Graphics::Colormaps::Plasma plasma);