//
// Created by Simone on 18/05/2022.
//

#pragma once
#include "../../macros.h"


namespace Eloquent {
    namespace Graphics {
        namespace Colormaps {
            class PRGn {
            public:

                /**
                 * Convert single byte to RGB color
                 * @param x
                 * @param r
                 * @param g
                 * @param b
                 */
                void convert(uint8_t x, uint8_t *r, uint8_t *g, uint8_t *b) {
                    *r = red[x << 2];
                    *g = green[x << 2];
                    *b = blue[x << 2];
                }

            protected:
                uint8_t red[64] = {64, 72, 81, 89, 98, 106, 115, 121, 127, 133, 138, 144, 149, 155, 162, 168, 175, 181, 188, 194, 200, 206, 212, 218, 223, 229, 233, 235, 238, 240, 243, 245, 244, 239, 235, 230, 225, 220, 215, 207, 199, 191, 183, 174, 166, 155, 143, 131, 118, 106, 94, 84, 74, 64, 54, 44, 34, 25, 21, 17, 12, 8, 4, 0};
                uint8_t green[64] = {0, 6, 13, 20, 26, 33, 40, 49, 60, 72, 83, 94, 105, 115, 123, 132, 140, 149, 157, 165, 173, 180, 188, 195, 203, 210, 216, 222, 227, 233, 238, 244, 246, 245, 244, 243, 242, 240, 239, 236, 232, 229, 226, 222, 219, 212, 205, 198, 191, 184, 176, 168, 160, 151, 143, 134, 126, 117, 109, 101, 92, 84, 76, 68};
                uint8_t blue[64] = {75, 83, 92, 101, 110, 119, 128, 135, 141, 148, 154, 160, 167, 173, 179, 184, 190, 196, 201, 207, 211, 215, 219, 223, 227, 231, 233, 236, 238, 241, 243, 245, 244, 238, 232, 227, 221, 215, 209, 201, 193, 185, 177, 168, 160, 151, 141, 131, 121, 111, 101, 93, 86, 79, 73, 66, 59, 53, 49, 44, 40, 35, 31, 27};
            };
        }
    }
}

ELOQUENT_SINGLETON(Eloquent::Graphics::Colormaps::PRGn prgn);