//
// Created by Simone on 18/05/2022.
//

#pragma once
#include "../../macros.h"


namespace Eloquent {
    namespace Graphics {
        namespace Colormaps {
            class Prism {
            public:

                /**
                 * Convert single byte to RGB color
                 * @param x
                 * @param r
                 * @param g
                 * @param b
                 */
                void convert(uint8_t x, uint8_t *r, uint8_t *g, uint8_t *b) {
                    *r = red[x << 2];
                    *g = green[x << 2];
                    *b = blue[x << 2];
                }

            protected:
                uint8_t red[64] = {255, 255, 222, 37, 0, 116, 255, 255, 227, 41, 0, 111, 255, 255, 233, 46, 0, 105, 255, 255, 238, 50, 0, 100, 255, 255, 243, 54, 0, 95, 255, 255, 249, 59, 0, 90, 255, 255, 254, 64, 0, 84, 255, 255, 255, 69, 0, 79, 255, 255, 255, 73, 0, 74, 255, 255, 255, 78, 0, 69, 255, 255, 255, 84};
                uint8_t green[64] = {0, 132, 255, 221, 38, 0, 0, 127, 255, 225, 43, 0, 0, 121, 255, 229, 49, 0, 0, 115, 255, 232, 55, 0, 0, 110, 255, 236, 60, 0, 0, 104, 255, 239, 66, 0, 0, 98, 255, 242, 72, 0, 0, 93, 253, 246, 77, 0, 0, 87, 250, 249, 83, 0, 0, 81, 248, 251, 89, 0, 0, 76, 245, 254};
                uint8_t blue[64] = {0, 0, 0, 0, 240, 246, 8, 0, 0, 0, 235, 250, 16, 0, 0, 0, 230, 253, 25, 0, 0, 0, 226, 255, 33, 0, 0, 0, 221, 255, 41, 0, 0, 0, 215, 255, 50, 0, 0, 0, 210, 255, 58, 0, 0, 0, 204, 255, 66, 0, 0, 0, 198, 255, 74, 0, 0, 0, 192, 255, 82, 0, 0, 0};
            };
        }
    }
}

ELOQUENT_SINGLETON(Eloquent::Graphics::Colormaps::Prism prism);