//
// Created by Simone on 18/05/2022.
//

#pragma once
#include "../../macros.h"


namespace Eloquent {
    namespace Graphics {
        namespace Colormaps {
            class PuRd_r {
            public:

                /**
                 * Convert single byte to RGB color
                 * @param x
                 * @param r
                 * @param g
                 * @param b
                 */
                void convert(uint8_t x, uint8_t *r, uint8_t *g, uint8_t *b) {
                    *r = red[x << 2];
                    *g = green[x << 2];
                    *b = blue[x << 2];
                }

            protected:
                uint8_t red[64] = {103, 109, 115, 121, 127, 134, 140, 146, 152, 159, 166, 173, 180, 187, 194, 200, 206, 209, 213, 216, 219, 222, 225, 229, 230, 229, 228, 227, 226, 225, 224, 223, 221, 218, 216, 213, 210, 207, 204, 202, 201, 203, 204, 206, 207, 208, 210, 211, 213, 216, 218, 221, 223, 225, 228, 230, 232, 234, 236, 238, 240, 242, 244, 247};
                uint8_t green[64] = {0, 0, 0, 0, 0, 0, 0, 0, 0, 2, 4, 7, 9, 11, 14, 16, 18, 21, 24, 27, 30, 33, 36, 39, 43, 51, 59, 66, 74, 81, 89, 97, 103, 109, 115, 121, 127, 133, 139, 145, 150, 155, 160, 165, 169, 174, 179, 183, 188, 193, 198, 204, 209, 214, 219, 224, 227, 229, 231, 234, 236, 239, 241, 244};
                uint8_t blue[64] = {31, 35, 40, 44, 49, 53, 58, 63, 67, 69, 72, 74, 76, 79, 81, 84, 87, 94, 100, 107, 114, 120, 127, 133, 139, 144, 149, 154, 159, 163, 168, 173, 177, 180, 183, 186, 189, 192, 194, 197, 200, 202, 205, 207, 210, 212, 214, 217, 219, 222, 225, 227, 230, 233, 236, 238, 240, 241, 242, 243, 245, 246, 247, 249};
            };
        }
    }
}

ELOQUENT_SINGLETON(Eloquent::Graphics::Colormaps::PuRd_r purd_r);