//
// Created by Simone on 18/05/2022.
//

#pragma once
#include "../../macros.h"


namespace Eloquent {
    namespace Graphics {
        namespace Colormaps {
            class Purples {
            public:

                /**
                 * Convert single byte to RGB color
                 * @param x
                 * @param r
                 * @param g
                 * @param b
                 */
                void convert(uint8_t x, uint8_t *r, uint8_t *g, uint8_t *b) {
                    *r = red[x << 2];
                    *g = green[x << 2];
                    *b = blue[x << 2];
                }

            protected:
                uint8_t red[64] = {252, 250, 248, 247, 245, 243, 242, 240, 238, 236, 233, 230, 227, 225, 222, 219, 217, 213, 209, 205, 201, 198, 194, 190, 186, 182, 178, 175, 171, 167, 163, 159, 156, 152, 148, 144, 140, 137, 133, 129, 126, 123, 120, 117, 115, 112, 109, 106, 103, 101, 98, 95, 92, 89, 87, 84, 81, 79, 76, 73, 71, 68, 65, 63};
                uint8_t green[64] = {251, 249, 247, 245, 243, 242, 240, 238, 236, 234, 231, 229, 227, 224, 222, 219, 217, 213, 209, 206, 202, 198, 194, 191, 187, 182, 178, 174, 169, 165, 160, 156, 152, 148, 144, 141, 137, 133, 130, 126, 121, 115, 110, 104, 99, 93, 87, 82, 77, 71, 66, 60, 55, 50, 45, 39, 34, 29, 24, 19, 14, 9, 4, 0};
                uint8_t blue[64] = {253, 251, 250, 249, 248, 247, 246, 245, 244, 243, 242, 241, 239, 238, 237, 235, 234, 232, 230, 228, 226, 225, 223, 221, 219, 216, 213, 211, 208, 206, 203, 201, 199, 197, 195, 193, 192, 190, 188, 186, 184, 181, 178, 175, 172, 169, 166, 163, 161, 158, 156, 153, 150, 148, 145, 143, 141, 138, 136, 134, 131, 129, 127, 125};
            };
        }
    }
}

ELOQUENT_SINGLETON(Eloquent::Graphics::Colormaps::Purples purples);