//
// Created by Simone on 18/05/2022.
//

#pragma once
#include "../../macros.h"


namespace Eloquent {
    namespace Graphics {
        namespace Colormaps {
            class RdGy {
            public:

                /**
                 * Convert single byte to RGB color
                 * @param x
                 * @param r
                 * @param g
                 * @param b
                 */
                void convert(uint8_t x, uint8_t *r, uint8_t *g, uint8_t *b) {
                    *r = red[x << 2];
                    *g = green[x << 2];
                    *b = blue[x << 2];
                }

            protected:
                uint8_t red[64] = {103, 114, 126, 138, 150, 162, 174, 181, 187, 193, 199, 204, 210, 215, 220, 225, 230, 234, 239, 244, 245, 247, 248, 249, 251, 252, 253, 253, 253, 254, 254, 254, 252, 247, 242, 237, 232, 227, 222, 216, 210, 204, 198, 192, 186, 178, 170, 162, 154, 146, 138, 129, 120, 111, 101, 92, 83, 74, 66, 58, 50, 42, 34, 26};
                uint8_t green[64] = {0, 3, 7, 11, 15, 19, 22, 31, 43, 54, 66, 77, 89, 100, 111, 122, 133, 144, 155, 165, 174, 182, 191, 200, 208, 217, 223, 229, 235, 240, 246, 252, 252, 247, 242, 237, 232, 227, 222, 216, 210, 204, 198, 192, 186, 178, 170, 162, 154, 146, 138, 129, 120, 111, 101, 92, 83, 74, 66, 58, 50, 42, 34, 26};
                uint8_t blue[64] = {31, 32, 34, 36, 38, 40, 42, 46, 52, 57, 62, 68, 73, 80, 88, 97, 105, 114, 122, 131, 142, 152, 163, 174, 185, 196, 206, 214, 223, 232, 241, 250, 252, 247, 242, 237, 232, 227, 222, 216, 210, 204, 198, 192, 186, 178, 170, 162, 154, 146, 138, 129, 120, 111, 101, 92, 83, 74, 66, 58, 50, 42, 34, 26};
            };
        }
    }
}

ELOQUENT_SINGLETON(Eloquent::Graphics::Colormaps::RdGy rdgy);