//
// Created by Simone on 18/05/2022.
//

#pragma once
#include "../../macros.h"


namespace Eloquent {
    namespace Graphics {
        namespace Colormaps {
            class RdPu_r {
            public:

                /**
                 * Convert single byte to RGB color
                 * @param x
                 * @param r
                 * @param g
                 * @param b
                 */
                void convert(uint8_t x, uint8_t *r, uint8_t *g, uint8_t *b) {
                    *r = red[x << 2];
                    *g = green[x << 2];
                    *b = blue[x << 2];
                }

            protected:
                uint8_t red[64] = {73, 79, 85, 91, 97, 104, 110, 116, 122, 129, 136, 142, 149, 155, 162, 169, 175, 181, 187, 193, 199, 205, 211, 217, 222, 225, 228, 232, 235, 238, 242, 245, 247, 247, 247, 248, 248, 249, 249, 249, 250, 250, 250, 250, 251, 251, 251, 251, 252, 252, 252, 252, 252, 252, 252, 252, 253, 253, 253, 253, 254, 254, 254, 255};
                uint8_t green[64] = {0, 0, 0, 0, 0, 0, 0, 0, 1, 1, 1, 1, 1, 1, 1, 1, 2, 9, 15, 22, 28, 35, 41, 47, 54, 61, 67, 74, 80, 87, 94, 100, 107, 114, 121, 128, 135, 142, 149, 156, 162, 166, 171, 176, 181, 186, 190, 195, 199, 203, 206, 209, 213, 216, 220, 223, 226, 229, 232, 235, 238, 241, 244, 247};
                uint8_t blue[64] = {106, 107, 109, 110, 112, 114, 115, 117, 119, 120, 120, 121, 122, 123, 124, 125, 126, 129, 133, 136, 139, 142, 145, 149, 151, 152, 154, 155, 156, 157, 159, 160, 162, 164, 167, 169, 172, 174, 177, 180, 181, 183, 184, 186, 187, 188, 190, 191, 194, 198, 202, 205, 209, 213, 216, 220, 223, 226, 229, 231, 234, 237, 240, 243};
            };
        }
    }
}

ELOQUENT_SINGLETON(Eloquent::Graphics::Colormaps::RdPu_r rdpu_r);