//
// Created by Simone on 18/05/2022.
//

#pragma once
#include "../../macros.h"


namespace Eloquent {
    namespace Graphics {
        namespace Colormaps {
            class RdPu {
            public:

                /**
                 * Convert single byte to RGB color
                 * @param x
                 * @param r
                 * @param g
                 * @param b
                 */
                void convert(uint8_t x, uint8_t *r, uint8_t *g, uint8_t *b) {
                    *r = red[x << 2];
                    *g = green[x << 2];
                    *b = blue[x << 2];
                }

            protected:
                uint8_t red[64] = {255, 254, 254, 254, 253, 253, 253, 253, 252, 252, 252, 252, 252, 252, 252, 252, 251, 251, 251, 251, 250, 250, 250, 250, 249, 249, 249, 248, 248, 247, 247, 247, 245, 242, 238, 235, 232, 228, 225, 222, 217, 211, 205, 199, 193, 187, 181, 175, 169, 162, 155, 149, 142, 136, 129, 122, 116, 110, 104, 97, 91, 85, 79, 73};
                uint8_t green[64] = {247, 244, 241, 238, 235, 232, 229, 226, 223, 220, 216, 213, 209, 206, 203, 199, 195, 190, 186, 181, 176, 171, 166, 162, 156, 149, 142, 135, 128, 121, 114, 107, 100, 94, 87, 80, 74, 67, 61, 54, 47, 41, 35, 28, 22, 15, 9, 2, 1, 1, 1, 1, 1, 1, 1, 1, 0, 0, 0, 0, 0, 0, 0, 0};
                uint8_t blue[64] = {243, 240, 237, 234, 231, 229, 226, 223, 220, 216, 213, 209, 205, 202, 198, 194, 191, 190, 188, 187, 186, 184, 183, 181, 180, 177, 174, 172, 169, 167, 164, 162, 160, 159, 157, 156, 155, 154, 152, 151, 149, 145, 142, 139, 136, 133, 129, 126, 125, 124, 123, 122, 121, 120, 120, 119, 117, 115, 114, 112, 110, 109, 107, 106};
            };
        }
    }
}

ELOQUENT_SINGLETON(Eloquent::Graphics::Colormaps::RdPu rdpu);