//
// Created by Simone on 18/05/2022.
//

#pragma once
#include "../../macros.h"


namespace Eloquent {
    namespace Graphics {
        namespace Colormaps {
            class Set2_r {
            public:

                /**
                 * Convert single byte to RGB color
                 * @param x
                 * @param r
                 * @param g
                 * @param b
                 */
                void convert(uint8_t x, uint8_t *r, uint8_t *g, uint8_t *b) {
                    *r = red[x << 2];
                    *g = green[x << 2];
                    *b = blue[x << 2];
                }

            protected:
                uint8_t red[64] = {179, 179, 179, 179, 179, 179, 179, 179, 229, 229, 229, 229, 229, 229, 229, 229, 255, 255, 255, 255, 255, 255, 255, 255, 166, 166, 166, 166, 166, 166, 166, 166, 231, 231, 231, 231, 231, 231, 231, 231, 141, 141, 141, 141, 141, 141, 141, 141, 252, 252, 252, 252, 252, 252, 252, 252, 102, 102, 102, 102, 102, 102, 102, 102};
                uint8_t green[64] = {179, 179, 179, 179, 179, 179, 179, 179, 196, 196, 196, 196, 196, 196, 196, 196, 217, 217, 217, 217, 217, 217, 217, 217, 216, 216, 216, 216, 216, 216, 216, 216, 138, 138, 138, 138, 138, 138, 138, 138, 160, 160, 160, 160, 160, 160, 160, 160, 141, 141, 141, 141, 141, 141, 141, 141, 194, 194, 194, 194, 194, 194, 194, 194};
                uint8_t blue[64] = {179, 179, 179, 179, 179, 179, 179, 179, 148, 148, 148, 148, 148, 148, 148, 148, 47, 47, 47, 47, 47, 47, 47, 47, 84, 84, 84, 84, 84, 84, 84, 84, 195, 195, 195, 195, 195, 195, 195, 195, 203, 203, 203, 203, 203, 203, 203, 203, 98, 98, 98, 98, 98, 98, 98, 98, 165, 165, 165, 165, 165, 165, 165, 165};
            };
        }
    }
}

ELOQUENT_SINGLETON(Eloquent::Graphics::Colormaps::Set2_r set2_r);