//
// Created by Simone on 18/05/2022.
//

#pragma once
#include "../../macros.h"


namespace Eloquent {
    namespace Graphics {
        namespace Colormaps {
            class Viridis {
            public:

                /**
                 * Convert single byte to RGB color
                 * @param x
                 * @param r
                 * @param g
                 * @param b
                 */
                void convert(uint8_t x, uint8_t *r, uint8_t *g, uint8_t *b) {
                    *r = red[x << 2];
                    *g = green[x << 2];
                    *b = blue[x << 2];
                }

            protected:
                uint8_t red[64] = {68, 69, 70, 71, 71, 72, 72, 71, 71, 70, 69, 67, 66, 64, 62, 60, 58, 56, 54, 52, 50, 48, 46, 45, 43, 42, 40, 39, 37, 36, 34, 33, 31, 31, 30, 30, 31, 32, 35, 38, 42, 47, 53, 59, 66, 73, 81, 89, 100, 109, 119, 129, 139, 149, 159, 170, 181, 191, 202, 212, 223, 233, 243, 253};
                uint8_t green[64] = {1, 6, 12, 18, 24, 29, 34, 39, 44, 49, 54, 59, 64, 68, 73, 77, 83, 87, 91, 95, 99, 103, 107, 111, 115, 119, 122, 126, 130, 134, 137, 141, 146, 150, 153, 157, 161, 165, 168, 172, 176, 179, 183, 186, 190, 193, 196, 199, 203, 206, 208, 211, 213, 215, 217, 219, 221, 223, 224, 225, 227, 228, 229, 231};
                uint8_t blue[64] = {84, 90, 95, 101, 106, 111, 115, 119, 123, 126, 129, 131, 133, 135, 137, 138, 139, 140, 140, 141, 141, 141, 142, 142, 142, 142, 142, 142, 142, 141, 141, 140, 140, 139, 138, 136, 135, 133, 131, 129, 126, 123, 120, 117, 113, 109, 104, 100, 93, 88, 82, 76, 70, 63, 56, 50, 43, 36, 30, 26, 24, 25, 30, 36};
            };
        }
    }
}

ELOQUENT_SINGLETON(Eloquent::Graphics::Colormaps::Viridis viridis);