//
// Created by Simone on 18/05/2022.
//

#pragma once
#include "../../macros.h"


namespace Eloquent {
    namespace Graphics {
        namespace Colormaps {
            class Wistia {
            public:

                /**
                 * Convert single byte to RGB color
                 * @param x
                 * @param r
                 * @param g
                 * @param b
                 */
                void convert(uint8_t x, uint8_t *r, uint8_t *g, uint8_t *b) {
                    *r = red[x << 2];
                    *g = green[x << 2];
                    *b = blue[x << 2];
                }

            protected:
                uint8_t red[64] = {228, 229, 231, 233, 234, 236, 238, 240, 241, 243, 245, 246, 248, 250, 252, 253, 255, 255, 255, 255, 255, 255, 255, 255, 255, 255, 255, 255, 255, 255, 255, 255, 255, 255, 255, 255, 255, 255, 255, 255, 255, 255, 255, 255, 255, 255, 255, 255, 254, 254, 254, 254, 254, 253, 253, 253, 253, 253, 252, 252, 252, 252, 252, 252};
                uint8_t green[64] = {255, 253, 252, 250, 249, 247, 246, 244, 243, 241, 240, 238, 237, 236, 234, 233, 231, 228, 225, 223, 220, 217, 214, 212, 209, 206, 204, 201, 198, 195, 193, 190, 188, 186, 184, 182, 180, 178, 177, 175, 173, 171, 169, 167, 165, 164, 162, 160, 158, 156, 154, 152, 150, 147, 145, 143, 141, 139, 137, 135, 133, 131, 129, 127};
                uint8_t blue[64] = {122, 115, 109, 103, 97, 91, 85, 79, 73, 67, 61, 54, 48, 42, 36, 30, 25, 23, 22, 20, 18, 17, 15, 14, 12, 10, 9, 7, 5, 4, 2, 0, 0, 0, 0, 0, 0, 0, 0, 0, 0, 0, 0, 0, 0, 0, 0, 0, 0, 0, 0, 0, 0, 0, 0, 0, 0, 0, 0, 0, 0, 0, 0, 0};
            };
        }
    }
}

ELOQUENT_SINGLETON(Eloquent::Graphics::Colormaps::Wistia wistia);