//
// Created by Simone on 18/05/2022.
//

#pragma once
#include "../../macros.h"


namespace Eloquent {
    namespace Graphics {
        namespace Colormaps {
            class YlOrBr {
            public:

                /**
                 * Convert single byte to RGB color
                 * @param x
                 * @param r
                 * @param g
                 * @param b
                 */
                void convert(uint8_t x, uint8_t *r, uint8_t *g, uint8_t *b) {
                    *r = red[x << 2];
                    *g = green[x << 2];
                    *b = blue[x << 2];
                }

            protected:
                uint8_t red[64] = {255, 255, 255, 255, 255, 255, 255, 255, 254, 254, 254, 254, 254, 254, 254, 254, 254, 254, 254, 254, 254, 254, 254, 254, 254, 254, 254, 254, 254, 254, 254, 254, 252, 250, 248, 246, 243, 241, 239, 236, 233, 229, 225, 221, 217, 213, 209, 205, 199, 192, 186, 179, 173, 166, 160, 153, 147, 140, 134, 127, 121, 114, 108, 102};
                uint8_t green[64] = {255, 253, 252, 251, 250, 249, 248, 247, 246, 244, 241, 239, 236, 233, 231, 228, 226, 222, 218, 214, 210, 206, 202, 198, 193, 188, 183, 177, 172, 166, 161, 155, 150, 145, 139, 134, 129, 124, 119, 113, 109, 104, 100, 95, 90, 86, 81, 77, 73, 70, 67, 64, 61, 58, 55, 52, 50, 48, 46, 44, 42, 40, 38, 37};
                uint8_t blue[64] = {229, 223, 218, 213, 208, 202, 197, 192, 187, 181, 176, 170, 165, 160, 154, 149, 142, 134, 126, 117, 109, 101, 92, 84, 77, 72, 67, 62, 57, 53, 48, 43, 39, 37, 34, 31, 29, 26, 23, 21, 18, 16, 14, 11, 9, 7, 4, 2, 2, 2, 2, 2, 3, 3, 3, 3, 4, 4, 4, 4, 5, 5, 5, 5};
            };
        }
    }
}

ELOQUENT_SINGLETON(Eloquent::Graphics::Colormaps::YlOrBr ylorbr);